<?xml version="1.0"?>
<opencv_storage>
<opencv_ml_knn>
  <format>3</format>
  <is_classifier>1</is_classifier>
  <default_k>1</default_k>
  <samples type_id="opencv-matrix">
    <rows>19</rows>
    <cols>12</cols>
    <dt>f</dt>
    <data>
      -2.19656375e+05 202728256. 90504. 5.08590781e+04 -2.04869266e+05
      131305568. 257298. 4.07953008e+04 -1.99886688e+05 121676600.
      289652. 3.90555742e+04 -2.18654219e+05 192698800. 43846.
      5.17804414e+04 -2.04066469e+05 124468464. 210166. 4.15841758e+04
      -1.98563969e+05 114071616. 221662. 3.97296055e+04 -2.10132359e+05
      176973552. 113174. 4.90434609e+04 -1.94619094e+05 117396408.
      763134. 3.91100703e+04 -1.89602391e+05 108501296. 828142.
      3.71648281e+04 -2.10324422e+05 178379296. 113254. 4.90223789e+04
      -1.95253391e+05 118996616. 755812. 3.94030273e+04 -1.90218453e+05
      110032056. 820904. 3.74576484e+04 -1.99687625e+05 149888480.
      147110. 4.72037773e+04 -1.83713703e+05 106203664. 1201708.
      3.79881992e+04 -1.78541703e+05 97999968. 1333654. 3.60985000e+04
      -2.14566516e+05 187422256. 106124. 4.99421367e+04 -2.03310688e+05
      133598840. 451052. 4.21335820e+04 -1.98224922e+05 123988008.
      491836. 4.02945508e+04 -2.14693969e+05 190248768. 107068.
      4.98023125e+04 -2.00718891e+05 127094688. 482892. 4.05385742e+04
      -1.95734328e+05 117817584. 524232. 3.86902500e+04 -2.06446984e+05
      167799920. 123452. 4.84872305e+04 -1.90078297e+05 111843208.
      996540. 3.84135430e+04 -1.85114406e+05 103301616. 1074124.
      3.64751328e+04 -2.14390484e+05 187712960. 107260. 4.97351133e+04
      -1.99462750e+05 122884360. 497000. 3.98218398e+04 -1.94550656e+05
      113779264. 538194. 3.79436602e+04 -2.06017141e+05 165277056.
      123568. 4.84484297e+04 -1.89713719e+05 110125616. 996594.
      3.84030586e+04 -1.84750188e+05 101620384. 1074254. 3.64485313e+04
      -2.04079031e+05 144437440. 119458. 4.74500977e+04 -1.90069672e+05
      97670000. 728642. 3.86153047e+04 -1.84701203e+05 89470040. 782046.
      3.65540195e+04 -2.04079031e+05 144437440. 119458. 4.74500977e+04
      -1.90069672e+05 97670000. 728642. 3.86153047e+04 -1.84701203e+05
      89470040. 782046. 3.65540195e+04 -2.21363078e+05 204989424. 46270.
      5.02907891e+04 -2.16275531e+05 165702560. 94184. 4.36713633e+04
      -211247. 156492448. 99592. 4.20742813e+04 -2.04079031e+05
      144437440. 119458. 4.74500977e+04 -1.90069672e+05 97670000.
      728642. 3.86153047e+04 -1.84701203e+05 89470040. 782046.
      3.65540195e+04 -2.03926953e+05 144541376. 120038. 4.74367383e+04
      -1.90005828e+05 97903200. 729162. 3.86550547e+04 -1.84636938e+05
      89776064. 782836. 3.65698594e+04 -2.04083469e+05 145363008.
      119194. 4.75587383e+04 -1.90085391e+05 98164080. 728856.
      3.87254492e+04 -1.84718500e+05 90055168. 783104. 3.66513828e+04
      -2.18014391e+05 187535200. 49792. 4.98055313e+04 -2.11666141e+05
      147734304. 110462. 4.27470977e+04 -2.07026984e+05 140200224.
      115206. 4.12806094e+04 -2.21363078e+05 204989424. 46270.
      5.02907891e+04 -2.16275531e+05 165702560. 94184. 4.36713633e+04
      -211247. 156492448. 99592. 4.20742813e+04 -2.03433172e+05
      143690912. 121276. 4.74240430e+04 -1.90208625e+05 98757896.
      724340. 3.91289961e+04 -1.84758578e+05 90544704. 779776.
      3.70268008e+04</data></samples>
  <responses type_id="opencv-matrix">
    <rows>19</rows>
    <cols>1</cols>
    <dt>f</dt>
    <data>
      1. 1. 1. 1. 1. 1. 1. 1. 1. 1. 2. 2. 2. 2. 2. 2. 2. 2. 2.</data></responses></opencv_ml_knn>
</opencv_storage>
