<?xml version="1.0"?>
<opencv_storage>
<opencv_ml_knn>
  <format>3</format>
  <is_classifier>1</is_classifier>
  <default_k>1</default_k>
  <samples type_id="opencv-matrix">
    <rows>19</rows>
    <cols>16</cols>
    <dt>f</dt>
    <data>
      9.87358624e-04 0. 9.86629748e-04 0. 7.21488504e-08 0.
      7.05345968e-08 0. 2.24721568e-14 0. 2.88477026e-14 0.
      3.49468149e-13 0. 3.73158291e-13 0. 9.48923116e-04 0.
      9.45952430e-04 0. 6.83840469e-08 0. 6.76082834e-08 0.
      3.76584289e-13 0. 3.87300110e-13 0. 3.43367668e-13 0.
      4.05528123e-13 0. 9.92078567e-04 0. 9.92615242e-04 0.
      6.88356181e-08 0. 6.84310208e-08 0. 1.90324847e-14 0.
      1.22279785e-14 0. 4.57875708e-13 0. 4.72131123e-13 0.
      9.95441340e-04 0. 9.95832845e-04 0. 7.03400929e-08 0.
      6.95903353e-08 0. 2.35723865e-14 0. 1.03379058e-14 0.
      4.57422999e-13 0. 4.69835542e-13 0. 1.01503974e-03 0.
      1.01343624e-03 0. 7.03849778e-08 0. 6.79490526e-08 0.
      5.20970325e-14 0. 1.05436127e-13 0. 5.11016414e-13 0.
      4.97009497e-13 0. 1.00524619e-03 0. 1.00475829e-03 0.
      6.47091127e-08 0. 6.37164845e-08 0. 1.85314817e-13 0.
      1.89777190e-13 0. 4.00326473e-13 0. 4.42761198e-13 0.
      9.95014096e-04 0. 9.95210605e-04 0. 6.95735523e-08 0.
      6.91538204e-08 0. 3.44766635e-14 0. 1.96514998e-14 0.
      3.84268219e-13 0. 4.11794757e-13 0. 9.95363924e-04 0.
      9.95693728e-04 0. 6.88596629e-08 0. 6.79701202e-08 0.
      3.85931123e-15 0. 1.79066111e-15 0. 4.99073710e-13 0.
      4.94354557e-13 0. 9.88430576e-04 0. 9.88656073e-04 0.
      6.88431570e-08 0. 6.84624695e-08 0. 1.41862933e-14 0.
      1.68521474e-14 0. 3.58504323e-13 0. 3.86929475e-13 0.
      9.94913164e-04 0. 9.95206181e-04 0. 6.83131489e-08 0.
      6.75042244e-08 0. 3.00085071e-14 0. 2.45173483e-14 0.
      4.86142214e-13 0. 4.78817398e-13 0. 7.78338232e-04 0.
      7.78414018e-04 0. 4.10735090e-08 0. 4.15071497e-08 0.
      2.05224309e-14 0. 2.80062025e-14 0. 3.78641373e-13 0.
      4.01735231e-13 0. 7.78338232e-04 0. 7.78414018e-04 0.
      4.10735090e-08 0. 4.15071497e-08 0. 2.05224309e-14 0.
      2.80062025e-14 0. 3.78641373e-13 0. 4.01735231e-13 0.
      1.06760149e-03 0. 1.06834318e-03 0. 6.85674948e-08 0.
      6.85821604e-08 0. 1.97145672e-13 0. 1.87400334e-13 0.
      5.60491256e-14 0. 4.72564730e-14 0. 7.78338232e-04 0.
      7.78414018e-04 0. 4.10735090e-08 0. 4.15071497e-08 0.
      2.05224309e-14 0. 2.80062025e-14 0. 3.78641373e-13 0.
      4.01735231e-13 0. 7.76548462e-04 0. 7.76434666e-04 0.
      4.03832701e-08 0. 4.07025134e-08 0. 1.79580116e-14 0.
      2.38862427e-14 0. 3.05432518e-13 0. 3.23180989e-13 0.
      7.76505796e-04 0. 7.76345900e-04 0. 4.02506011e-08 0.
      4.05400975e-08 0. 1.92460539e-14 0. 2.76706741e-14 0.
      2.87591240e-13 0. 3.00456573e-13 0. 1.07997400e-03 0.
      1.07995805e-03 0. 7.92966262e-08 0. 7.88820813e-08 0.
      7.32218173e-14 0. 6.92112180e-14 0. 1.41799827e-15 0.
      1.18489745e-15 0. 1.06760149e-03 0. 1.06834318e-03 0.
      6.85674948e-08 0. 6.85821604e-08 0. 1.97145672e-13 0.
      1.87400334e-13 0. 5.60491256e-14 0. 4.72564730e-14 0.
      7.80228525e-04 0. 7.79612863e-04 0. 4.05656237e-08 0.
      4.06359639e-08 0. 1.11396395e-14 0. 1.35334503e-14 0.
      3.52982319e-13 0. 3.49848378e-13 0.</data></samples>
  <responses type_id="opencv-matrix">
    <rows>19</rows>
    <cols>1</cols>
    <dt>f</dt>
    <data>
      1. 1. 1. 1. 1. 1. 1. 1. 1. 1. 2. 2. 2. 2. 2. 2. 2. 2. 2.</data></responses></opencv_ml_knn>
</opencv_storage>
