<?xml version="1.0"?>
<opencv_storage>
<opencv_ml_knn>
  <format>3</format>
  <is_classifier>1</is_classifier>
  <default_k>1</default_k>
  <samples type_id="opencv-matrix">
    <rows>20</rows>
    <cols>16</cols>
    <dt>f</dt>
    <data>
      6.85844512e-04 0. 6.87002786e-04 0. 1.99078070e-08 0.
      2.01933918e-08 0. 1.54788847e-13 0. 1.46609558e-13 0.
      9.01537010e-14 0. 9.38746287e-14 0. 6.90045767e-04 0.
      6.91541354e-04 0. 1.94432843e-08 0. 1.94270893e-08 0.
      1.29763089e-13 0. 1.47825139e-13 0. 1.46592279e-13 0.
      1.52938778e-13 0. 6.78635319e-04 0. 6.80271245e-04 0.
      2.14351665e-08 0. 2.20665850e-08 0. 5.37429276e-15 0.
      5.50956265e-15 0. 3.87274780e-14 0. 4.61038644e-14 0.
      6.75266376e-04 2.95185186e-02 6.76383206e-04 2.08333328e-01
      2.15450804e-08 8.94499317e-05 2.23629808e-08 4.34027761e-02
      3.11571265e-15 1.01438300e-05 2.37528388e-15 0. 3.50175215e-15
      1.38175119e-06 5.11654360e-15 0. 6.85844512e-04 0. 6.87002786e-04
      0. 1.99078070e-08 0. 2.01933918e-08 0. 1.54788847e-13 0.
      1.46609558e-13 0. 9.01537010e-14 0. 9.38746287e-14 0.
      6.85844512e-04 0. 6.87002786e-04 0. 1.99078070e-08 0.
      2.01933918e-08 0. 1.54788847e-13 0. 1.46609558e-13 0.
      9.01537010e-14 0. 9.38746287e-14 0. 6.76380994e-04 0.
      6.78479846e-04 0. 1.80422575e-08 0. 1.85464319e-08 0.
      1.39521124e-14 0. 1.61710262e-14 0. 3.44679289e-14 0.
      4.67988990e-14 0. 6.74367941e-04 0. 6.75727730e-04 2.38444229e+02
      1.99756158e-08 0. 2.03991419e-08 5.68556484e+04 4.39835173e-14 0.
      2.24520601e-14 33692888. 9.99925444e-15 0. 1.49094875e-14
      33692888. 6.80060999e-04 0. 6.80835103e-04 0. 1.89848297e-08 0.
      1.93268690e-08 0. 2.07605621e-13 0. 1.86657601e-13 0.
      8.91296433e-15 0. 1.16788691e-14 0. 6.76022901e-04 0.
      6.76238677e-04 0. 2.10259063e-08 0. 2.16593854e-08 0.
      3.14630388e-14 0. 4.01954301e-14 0. 3.64348300e-15 0.
      3.63722427e-15 0. 6.74117182e-04 1.02375001e-01 6.75560674e-04 0.
      1.46941153e-08 9.01814085e-03 1.53815574e-08 0. 8.98468854e-15
      8.91369069e-04 1.09671319e-14 0. 4.58751181e-14 3.43662832e-04
      4.77725600e-14 0. 6.77745324e-04 8.85416642e-02 6.79524150e-04 0.
      2.29252120e-08 7.83962663e-03 2.42674130e-08 0. 1.73789477e-14
      3.43322754e-03 2.28346513e-14 0. 2.70318707e-15 3.43322754e-03
      4.02177300e-15 0. 6.76396710e-04 0. 6.76442694e-04 0.
      1.94923402e-08 0. 1.98640873e-08 0. 5.20722246e-14 0.
      5.61039727e-14 0. 1.06843398e-14 0. 1.10384461e-14 0.
      6.75729709e-04 0. 6.75162883e-04 0. 1.96704697e-08 0.
      1.97849133e-08 0. 3.88794425e-14 0. 3.73216472e-14 0.
      1.45416770e-14 0. 1.12327275e-14 0. 6.70712790e-04 0.
      6.71859481e-04 0. 1.81237745e-08 0. 1.85997262e-08 0.
      1.00931463e-13 0. 9.66881740e-14 0. 1.02465169e-14 0.
      1.35471680e-14 0. 6.70629670e-04 0. 6.71728747e-04 0.
      1.69729049e-08 0. 1.76195840e-08 0. 3.80242848e-14 0.
      3.99570954e-14 0. 4.23540868e-15 0. 5.09422640e-15 0.
      6.76817610e-04 0. 6.78605109e-04 0. 1.88728695e-08 0.
      1.96164169e-08 0. 3.33052745e-14 0. 3.97597232e-14 0.
      3.31718668e-14 0. 4.30863570e-14 0. 6.76471042e-04 0.
      6.75682444e-04 0. 1.66583316e-08 0. 1.68579462e-08 0.
      8.41436092e-14 0. 7.19419844e-14 0. 3.88896746e-14 0.
      3.25453911e-14 0. 6.73948554e-04 1.02375001e-01 6.75508403e-04 0.
      1.73334929e-08 9.01814085e-03 1.81264603e-08 0. 8.08575534e-15
      8.91369069e-04 9.14471000e-15 0. 2.77601682e-14 3.43662832e-04
      3.30637447e-14 0. 6.74017239e-04 1.02375001e-01 6.75566203e-04 0.
      1.85050535e-08 9.01814085e-03 1.91701659e-08 0. 9.26779998e-15
      8.91369069e-04 9.90704812e-15 0. 2.23562234e-14 3.43662832e-04
      2.83777687e-14 0.</data></samples>
  <responses type_id="opencv-matrix">
    <rows>20</rows>
    <cols>1</cols>
    <dt>f</dt>
    <data>
      1. 1. 1. 1. 1. 1. 1. 1. 1. 2. 2. 2. 2. 2. 2. 2. 2. 2. 2. 2.</data></responses></opencv_ml_knn>
</opencv_storage>
