<?xml version="1.0"?>
<opencv_storage>
<opencv_ml_knn>
  <format>3</format>
  <is_classifier>1</is_classifier>
  <default_k>1</default_k>
  <samples type_id="opencv-matrix">
    <rows>20</rows>
    <cols>12</cols>
    <dt>f</dt>
    <data>
      -1.50055547e+05 65603176. 59740. 3.59808008e+04 -1.38180172e+05
      40138728. 265070. 2.69643926e+04 -1.34137625e+05 36979716. 285532.
      2.57415039e+04 -1.45724141e+05 60157756. 159220. 3.39465234e+04
      -1.35692047e+05 39473056. 383402. 2.64556387e+04 -1.31622406e+05
      36027336. 461488. 2.48978145e+04 -1.39820438e+05 45762632. 160064.
      3.11519063e+04 -1.31486078e+05 31322746. 404544. 2.44351348e+04
      -1.27067531e+05 28257076. 441850. 2.23606699e+04 -1.44631234e+05
      51809424. 78358. 3.22614316e+04 -1.35719297e+05 33663140. 231454.
      2.43503984e+04 -1.31468438e+05 30956388. 250906. 2.26620508e+04
      -1.50055547e+05 65603176. 59740. 3.59808008e+04 -1.38180172e+05
      40138728. 265070. 2.69643926e+04 -1.34137625e+05 36979716. 285532.
      2.57415039e+04 -1.50055547e+05 65603176. 59740. 3.59808008e+04
      -1.38180172e+05 40138728. 265070. 2.69643926e+04 -1.34137625e+05
      36979716. 285532. 2.57415039e+04 -1.39773234e+05 52096500. 175516.
      3.12114297e+04 -1.32018906e+05 36749976. 813336. 2.58573848e+04
      -1.27244797e+05 32577028. 827218. 2.34906621e+04 -1.48106844e+05
      67987456. 94864. 3.30872227e+04 -1.41398984e+05 47659240. 217050.
      2.74240391e+04 -1.36526938e+05 43094632. 245692. 2.52865977e+04
      -1.47951094e+05 62877056. 65106. 3.52525859e+04 -1.35869719e+05
      38000940. 299688. 2.61038750e+04 -1.31830281e+05 35278448. 320968.
      2.49062598e+04 -1.46658844e+05 54670636. 61530. 3.37367500e+04
      -1.36844141e+05 34747692. 189842. 2.61680762e+04 -1.32550250e+05
      31700032. 200268. 2.43211602e+04 -1.39402609e+05 44955472. 143132.
      3.16211855e+04 -1.31110109e+05 31527068. 350118. 2.54031250e+04
      -1.26202328e+05 27504882. 385274. 2.29393789e+04 -1.36789734e+05
      37009280. 101508. 3.10741328e+04 -1.27624422e+05 25708118. 306422.
      2.41115977e+04 -1.23057039e+05 23027512. 340118. 2.21833906e+04
      -1.45286328e+05 52383640. 61554. 3.37148672e+04 -1.36212719e+05
      34202820. 189114. 2.65330918e+04 -1.31818438e+05 31039100. 198666.
      2.46565430e+04 -1.46697016e+05 62103032. 75484. 3.22870508e+04
      -1.35960500e+05 36950896. 267588. 2.40420859e+04 -1.32163750e+05
      34751596. 266672. 2.23667832e+04 -1.35884328e+05 36229632. 130098.
      2.89182910e+04 -1.26928875e+05 23154938. 392100. 2.15718262e+04
      -1.22354891e+05 20762368. 419360. 1.97117988e+04 -1.36549422e+05
      37537096. 126704. 2.92748496e+04 -1.27067063e+05 23849766. 378002.
      2.16872676e+04 -1.22486164e+05 21279366. 409396. 1.97685723e+04
      -1.26108398e+05 26941996. 226614. 2.80194316e+04 -1.14446391e+05
      17929444. 1931532. 2.12173672e+04 -1.09806039e+05 15371602.
      1956136. 1.88655195e+04 -1.45127531e+05 57285616. 74378.
      3.25544512e+04 -1.34200250e+05 34741744. 257228. 2.42660566e+04
      -1.30320688e+05 32297108. 257674. 2.25089746e+04 -1.40138781e+05
      45718720. 144378. 3.13780527e+04 -1.32007141e+05 32045506. 348544.
      2.54003027e+04 -1.26966938e+05 27813604. 389476. 2.28419727e+04
      -137617. 40062560. 145574. 3.11897461e+04 -1.29591563e+05
      28619990. 365884. 2.50727715e+04 -1.24511141e+05 24624734. 405446.
      2.25432793e+04</data></samples>
  <responses type_id="opencv-matrix">
    <rows>20</rows>
    <cols>1</cols>
    <dt>f</dt>
    <data>
      1. 1. 1. 1. 1. 1. 1. 1. 1. 2. 2. 2. 2. 2. 2. 2. 2. 2. 2. 2.</data></responses></opencv_ml_knn>
</opencv_storage>
